input_layer_7
embedding_7
"[[ 0.1035583   0.02392722 -0.12703547 ...  0.06922664 -0.11106149
   0.10701483]
 [ 0.23141629  0.05156475 -0.08604444 ...  0.01554499 -0.15452401
  -0.02880673]
 [ 0.04462409 -0.05151881 -0.15635057 ...  0.04145131  0.16077282
   0.16389391]
 ...
 [-0.28545645  0.18520087 -0.20293768 ... -0.09316688  0.2521577
  -0.12626958]
 [-0.03324997 -0.19129768 -0.09188101 ...  0.18556397  0.02268564
  -0.20752354]
 [-0.04420374 -0.10933772 -0.08571471 ... -0.21307364  0.07884795
  -0.14128625]]"
dropout_14
conv1d_14
"[[[ 0.01613452 -0.20710659  0.24116445 ...  0.21529046  0.00133647
   -0.23505321]
  [-0.00639755  0.19687095 -0.05075759 ... -0.03596356  0.16854134
    0.13797761]
  [-0.01480603  0.10502917  0.12021976 ...  0.0690514   0.1810759
   -0.02612679]
  ...
  [ 0.02301813 -0.04998346  0.05343137 ...  0.17370962  0.0902045
   -0.09245504]
  [-0.02600222 -0.14730074 -0.11353692 ... -0.00121957 -0.1066226
    0.01895624]
  [-0.20892085 -0.00183865  0.17754038 ...  0.05380673  0.10773888
   -0.15608034]]

 [[-0.02713707 -0.09389248  0.15009604 ... -0.01345537  0.01539623
   -0.1735862 ]
  [-0.05373145 -0.12307792 -0.09405859 ...  0.15394916 -0.0792085
    0.02646672]
  [ 0.10139166 -0.08185747  0.06831963 ... -0.0190616  -0.22221923
    0.12206592]
  ...
  [-0.21306804 -0.09305649  0.04395606 ...  0.00300622 -0.05494727
   -0.05648243]
  [ 0.28546396 -0.0297997  -0.16835928 ... -0.04468206 -0.12530911
   -0.0627408 ]
  [ 0.04124862 -0.03696236 -0.25212565 ... -0.07416141  0.06796816
    0.01269733]]

 [[-0.04475196  0.15312248 -0.10231961 ... -0.00253204 -0.28735033
   -0.15229854]
  [-0.15250142  0.10384685 -0.10249297 ... -0.16144717  0.20076396
    0.32263446]
  [ 0.26683885  0.07018602  0.2625528  ...  0.21119644  0.14763644
   -0.05980691]
  ...
  [-0.01061832  0.07427961  0.03625853 ...  0.301109   -0.11820313
   -0.07067698]
  [-0.0902632   0.08405565  0.1762777  ...  0.01249674 -0.16299902
    0.20712253]
  [-0.06610138  0.12000708 -0.07173676 ...  0.02025095 -0.29531693
    0.18939714]]

 ...

 [[ 0.0478164   0.07986211 -0.09893327 ...  0.29742575 -0.07151685
    0.11527689]
  [-0.18192436  0.04123552  0.10291078 ...  0.2376734  -0.01994001
    0.04108892]
  [ 0.04632477 -0.19359216  0.18884382 ... -0.15705547 -0.28234455
    0.12403548]
  ...
  [ 0.13703543  0.0905492  -0.00905166 ... -0.17664446 -0.1689543
   -0.04113417]
  [ 0.21689463 -0.06104545  0.02222907 ...  0.22628184 -0.16705038
    0.13251495]
  [ 0.19984926 -0.12274949 -0.1002483  ... -0.00365622  0.00318283
    0.1024441 ]]

 [[ 0.09948576 -0.25166383  0.12551732 ... -0.22526148 -0.14807947
    0.04093029]
  [-0.03280456 -0.06616192 -0.15099533 ...  0.14826712 -0.03644522
    0.06465325]
  [ 0.04036658  0.13323776 -0.0626357  ... -0.05523526 -0.09608742
    0.01704597]
  ...
  [-0.02010461 -0.07078446 -0.08007764 ...  0.22567584  0.15807076
    0.16864236]
  [ 0.02528653  0.17277929  0.04120152 ...  0.0594975  -0.1448241
   -0.101918  ]
  [ 0.03213002  0.08986979  0.00414522 ...  0.24603774  0.0619038
    0.14781505]]

 [[-0.03953859  0.24717739  0.25599968 ... -0.14152393 -0.24418917
   -0.01334367]
  [ 0.09149468 -0.30341265 -0.00257864 ...  0.15694927  0.0503142
    0.14783823]
  [ 0.1408888   0.0017414  -0.04519134 ... -0.13817815 -0.17005554
   -0.03822229]
  ...
  [-0.01272063  0.05694153 -0.07605604 ...  0.0848531   0.01821753
    0.1302287 ]
  [-0.03173727 -0.17887166 -0.11601762 ...  0.08464891 -0.05878044
    0.12816358]
  [-0.05863792 -0.00893577 -0.01300584 ...  0.26790816 -0.00135722
    0.1930449 ]]]"
"[-0.4074291  -0.15764177 -0.24046993 -0.35436094 -0.35252818 -0.3053639
 -0.2850995  -0.2711638  -0.37837863 -0.24793082 -0.45879287 -0.26023942
  0.1290668  -0.288555   -0.36332202 -0.2934659  -0.15083477 -0.24246721
 -0.55976933 -0.2161915  -0.35723367 -0.33526054 -0.1193234  -0.14350958
  0.05390723  0.18077958 -0.2994064   0.04766849 -0.3321509  -0.17908686
 -0.3880224  -0.3618452  -0.31134808 -0.25357646  0.06032588 -0.3444418
 -0.26760906 -0.38532454 -0.14318825 -0.17648752 -0.03439025 -0.2897748
 -0.34891936 -0.04453059 -0.47586986 -0.25142854 -0.29476148 -0.42532897
 -0.22944097 -0.29695088 -0.38396922 -0.4227222  -0.31690127 -0.29465306
 -0.39246568  0.31387532 -0.44364333 -0.48208138 -0.3660166  -0.49205494
 -0.43775222 -0.25889057 -0.5649773  -0.25735316 -0.5300875  -0.25426412
 -0.25804034 -0.34526265 -0.31776762 -0.30922106 -0.29728037 -0.5243956
 -0.26056278 -0.14798123 -0.40696502 -0.3481256  -0.33547553 -0.27943018
 -0.40386024  0.22589064 -0.47033674 -0.11751081 -0.35111627 -0.23921207
 -0.48780078 -0.31846327 -0.26625088 -0.47392318 -0.02042104 -0.3615071
 -0.41509277 -0.3603865  -0.29993826 -0.32076356 -0.06954248 -0.33656424
 -0.34092504 -0.21160725 -0.32270005 -0.21142115 -0.45968127 -0.36051476
 -0.3325715  -0.20316105 -0.34167647 -0.3886785  -0.18564478  0.04292224
 -0.2261002  -0.36467284 -0.37351578 -0.3615705   0.16667193  0.06312788
 -0.48569712 -0.35436213 -0.47413373 -0.4273834  -0.3750367  -0.3275344
 -0.37174985 -0.30503437 -0.13826077 -0.33982286 -0.40354776 -0.25503945
 -0.3357999  -0.34701794]"
conv1d_15
"[[[ 1.32483900e-01  4.12520729e-02 -2.73416564e-02 ...  3.76474336e-02
    1.36703506e-01  6.04153126e-02]
  [ 2.25298945e-03 -1.16401218e-01  1.54904826e-02 ...  1.01164670e-03
   -1.20800048e-01 -1.93436474e-01]
  [ 1.80177271e-01 -6.57020882e-02  2.30478402e-02 ... -3.78912203e-02
   -1.65805090e-02  6.63724989e-02]
  ...
  [-1.46300085e-02 -1.72110364e-01 -3.62937711e-02 ... -8.72374251e-02
    2.08544452e-03  7.67629072e-02]
  [-8.83989856e-02  5.09420149e-02 -6.82708398e-02 ...  3.98460701e-02
   -5.01434039e-03 -1.36355773e-01]
  [ 1.04618877e-01 -4.12914902e-02  8.78022462e-02 ...  1.31874099e-01
    4.99020563e-03 -9.93222892e-02]]

 [[-6.75055087e-02  5.88205680e-02 -1.07764579e-01 ... -2.13037934e-02
   -1.62394404e-01  1.05512463e-01]
  [ 1.10042254e-02 -1.16402738e-01  4.28739861e-02 ...  2.83816103e-02
   -5.67558743e-02  1.56673826e-02]
  [ 6.99452907e-02 -1.65008625e-03  5.38714230e-02 ...  8.99160132e-02
   -1.00490101e-01  5.90520957e-03]
  ...
  [ 7.99899101e-02  1.39581829e-01  9.02162418e-02 ...  8.00524279e-03
    6.32658787e-03 -2.10353017e-01]
  [-1.44268468e-01  4.45191972e-02 -1.70062296e-02 ... -2.00949318e-04
   -1.11527860e-01 -3.88800465e-02]
  [-7.09593222e-02 -1.42015725e-01 -3.66429016e-02 ...  2.89067924e-02
   -7.29831960e-03 -9.11713988e-02]]

 [[-1.25331461e-01 -9.01173279e-02  1.04698144e-01 ...  3.79022025e-03
   -2.13498864e-02 -1.24838613e-01]
  [-1.71447262e-01 -1.18812062e-01 -3.13043036e-02 ... -2.18581818e-02
    2.21394952e-02  3.57743092e-02]
  [ 1.08935619e-02 -7.95242339e-02  6.42647520e-02 ... -3.57822366e-02
    6.67660311e-02 -8.57982114e-02]
  ...
  [-5.38030714e-02 -1.11650117e-01 -4.32831794e-03 ... -8.95824581e-02
   -3.78234722e-02  1.99965131e-03]
  [ 5.59171736e-02 -1.12050235e-01  3.01198736e-02 ... -2.41310354e-02
    7.71714374e-02 -2.53294557e-01]
  [-1.40011176e-01  2.16346398e-01 -1.45792425e-01 ... -4.48528044e-02
    8.97674356e-03 -8.58028326e-03]]

 ...

 [[-3.19114804e-01 -6.89433664e-02 -6.16439991e-02 ... -4.90242802e-02
   -2.28654873e-02  4.00212891e-02]
  [ 8.98628905e-02 -1.29177868e-02  2.63728696e-04 ... -9.88617316e-02
   -5.35165928e-02 -5.98594770e-02]
  [-2.13279769e-01  1.77762602e-02 -4.85799238e-02 ...  1.97579667e-01
   -7.72797391e-02 -1.04737421e-02]
  ...
  [-9.69134420e-02  5.62693551e-02 -7.53371194e-02 ... -3.86590809e-02
    4.67150398e-02  1.01583399e-01]
  [ 6.05411865e-02  1.09737225e-01  2.02540699e-02 ... -1.36797696e-01
   -4.88669351e-02  1.64831325e-01]
  [ 1.15816128e-02  1.63013041e-01 -4.28737141e-03 ... -6.74210116e-02
   -4.85767387e-02  5.73469959e-02]]

 [[ 3.59178223e-02  1.38361111e-01  3.48046347e-02 ...  1.03988856e-01
   -3.66150849e-02  2.56894380e-01]
  [ 1.92963127e-02 -3.76162902e-02 -3.74905975e-03 ... -9.72433984e-02
   -7.63211846e-02  6.71106204e-02]
  [ 1.10946015e-01  2.10207216e-02  1.65521968e-02 ... -7.08367378e-02
    6.66811829e-03 -3.43315080e-02]
  ...
  [ 1.05675556e-01 -1.09952502e-01 -4.95001450e-02 ... -8.01879540e-02
   -2.83155357e-04 -1.01396538e-01]
  [ 5.77224605e-02 -4.34357300e-02 -1.21566504e-01 ... -2.94725262e-02
   -8.89164060e-02 -9.47932154e-02]
  [ 1.41578401e-02  9.54102725e-02 -8.18820745e-02 ... -3.83791290e-02
    6.18493669e-02  6.15906157e-02]]

 [[ 2.79340055e-02 -9.49030221e-02 -7.16102347e-02 ... -1.20313451e-01
    9.37343854e-03 -3.22549716e-02]
  [ 2.54998095e-02 -3.94342914e-02 -5.73520772e-02 ... -7.70172104e-02
   -2.42169164e-02  3.44184674e-02]
  [ 1.24716079e-02  5.26155457e-02 -1.21404104e-01 ...  7.20326155e-02
   -5.12908325e-02  9.73525047e-02]
  ...
  [-1.97707370e-01 -6.28289655e-02 -6.77698329e-02 ... -7.65824318e-02
    2.14463547e-02 -1.15671381e-01]
  [ 1.03337787e-01 -7.54645374e-03 -4.79822792e-02 ...  1.17881276e-01
    5.31235859e-02  5.27044013e-02]
  [-2.04518750e-01  2.28460273e-03 -1.96395963e-02 ... -5.59459301e-03
    2.91222334e-02 -1.09401248e-01]]]"
"[-0.20987466 -0.22339335 -0.11168554 -0.21180004 -0.20796978 -0.14938413
 -0.21158068 -0.1498618  -0.1660846  -0.01762564 -0.18461086 -0.18953303
 -0.08424776 -0.26056433 -0.10114833  0.0361883  -0.08632836 -0.2337043
 -0.10352518 -0.08201431 -0.18585972 -0.17209952 -0.22114733  0.03307416
 -0.17232275 -0.19364232 -0.12756279 -0.08899099 -0.12771925 -0.26097775
 -0.19787623 -0.17482069 -0.19032584 -0.16727294 -0.1627226  -0.13324511
 -0.08615939  0.05112351 -0.10948697 -0.01535491 -0.01659044 -0.08031151
 -0.10861944 -0.02423387 -0.12541078 -0.11732203 -0.06068546 -0.18910074
 -0.15540202 -0.1338815  -0.13477463 -0.2295124  -0.2480858  -0.07248387
 -0.11636695 -0.05544332 -0.10266446 -0.12097189 -0.13362996 -0.11856898
 -0.1832918  -0.1906649  -0.03766923 -0.13421139 -0.17826223 -0.08949526
 -0.0984379  -0.06068037 -0.17309576 -0.12965058 -0.1102163  -0.1317343
 -0.08442239 -0.1249403  -0.20595612 -0.14552394 -0.11286435 -0.16282052
 -0.15158911 -0.22300428 -0.17061055 -0.27008224 -0.08686035 -0.17880574
 -0.10701144 -0.10881676 -0.11965562 -0.13710546 -0.01080613 -0.18837182
 -0.12908866  0.03499295 -0.07783999 -0.04144774 -0.1650364  -0.11107847
 -0.14980954  0.00344954 -0.08310952  0.02402326 -0.17379715 -0.13162431
 -0.15634969 -0.18326542 -0.07751269 -0.10613715 -0.18442836 -0.01450253
 -0.21075866 -0.15073715 -0.16010034 -0.1672795  -0.12371125 -0.04858234
 -0.09033117 -0.0309718  -0.10920166 -0.19008009 -0.19236864 -0.14911418
 -0.22006041 -0.08833961 -0.18306327 -0.16642566 -0.15739106 -0.15469241
 -0.14822915 -0.14055397]"
global_max_pooling1d_7
dense_7
"[[-0.05654128  0.01198438 -0.10691239 ... -0.10485462 -0.15431033
   0.00897095]
 [-0.18144417  0.12847286  0.07034104 ... -0.03750682 -0.01673772
   0.02060465]
 [ 0.11707206 -0.10946657 -0.02419031 ...  0.02259455 -0.01045429
   0.05819069]
 ...
 [-0.04493697 -0.03584034  0.07722627 ...  0.14514494  0.06237898
   0.19855043]
 [-0.0777524  -0.02002496  0.03325894 ...  0.09638858 -0.05592811
   0.13233456]
 [ 0.05456755  0.00888252  0.01603367 ... -0.15681164  0.040764
   0.07442569]]"
"[-0.10302308 -0.11414985 -0.1167201  -0.07568377 -0.01375925  0.0036288
 -0.13647304 -0.12253709 -0.09621917 -0.0903972  -0.20076875 -0.066686
  0.04756598 -0.12342033 -0.04651099 -0.14443597  0.10542347 -0.08053127
 -0.12453405 -0.02427697  0.03162704  0.00391833 -0.11952889 -0.05415436
 -0.11903069 -0.12515232 -0.12050551 -0.16543144  0.03877091 -0.05883464
 -0.14095283  0.17126971 -0.10320266 -0.10850585 -0.13410053  0.12828591
 -0.11957079 -0.09672288  0.00793232 -0.04486635 -0.08018496 -0.10605519
  0.16718197  0.18806705 -0.12738141 -0.11246576 -0.13814236 -0.03656475
  0.02063564 -0.08400001  0.00161387 -0.06534456 -0.03393071 -0.07866409
 -0.07715975 -0.04402155 -0.08908905  0.06167181 -0.13350368 -0.05990287
 -0.06867479 -0.03820789 -0.03061493  0.06005655 -0.08343213  0.13818647
 -0.07198939  0.00268344 -0.09959473 -0.12754871 -0.00262683 -0.12020813
 -0.13379459  0.04235871 -0.13339306 -0.03082271 -0.06849182 -0.16785319
 -0.06799173  0.0386964  -0.03199794 -0.12914774  0.2711191  -0.10974301
 -0.01972143 -0.0465284  -0.02370364 -0.01324081 -0.03172708  0.1474859
 -0.04265818 -0.11252202  0.1559866   0.14368822 -0.07435092 -0.02261539
  0.13845174 -0.06897341  0.00427644  0.24050434 -0.01890598 -0.05371723
 -0.02273819  0.18328135 -0.10130382 -0.05538507 -0.06703039 -0.06085196
 -0.03082164 -0.12139835 -0.0591227  -0.07679888 -0.10674821 -0.0690608
 -0.03055479 -0.08691377  0.02206433 -0.10719842 -0.05321983 -0.02082554
 -0.02582651 -0.03877354 -0.07284344 -0.05091633 -0.03840616 -0.07960851
  0.23073381 -0.04783829]"
dropout_15
predictions
"[[-0.00336065]
 [-0.02760091]
 [ 0.0054827 ]
 [-0.09450475]
 [-0.01470181]
 [-0.00649545]
 [-0.00311692]
 [-0.00743418]
 [-0.04425182]
 [-0.05001605]
 [-0.01078064]
 [ 0.07935124]
 [ 0.01552779]
 [-0.04941231]
 [-0.01259858]
 [ 0.01275479]
 [ 0.01873846]
 [-0.01123849]
 [-0.00359612]
 [-0.02503289]
 [ 0.04449702]
 [-0.02393972]
 [-0.00896142]
 [ 0.00917668]
 [ 0.01444306]
 [-0.00029299]
 [ 0.01951763]
 [ 0.05300572]
 [-0.02045396]
 [-0.06028321]
 [-0.01318531]
 [ 0.02665805]
 [ 0.00345218]
 [-0.03393892]
 [ 0.0445291 ]
 [ 0.02471982]
 [-0.06103992]
 [-0.02397698]
 [ 0.08024888]
 [-0.01425438]
 [ 0.00582793]
 [-0.00662391]
 [ 0.02607009]
 [ 0.06052184]
 [ 0.04672732]
 [-0.00531276]
 [ 0.02426139]
 [-0.01136367]
 [ 0.03239864]
 [ 0.11548998]
 [-0.00644093]
 [ 0.0785527 ]
 [ 0.00234066]
 [-0.03461929]
 [-0.01657216]
 [-0.00601792]
 [-0.02799991]
 [ 0.03428027]
 [-0.05472378]
 [ 0.01671891]
 [ 0.08039965]
 [ 0.09273416]
 [-0.02820952]
 [ 0.03843065]
 [ 0.07089018]
 [ 0.03884693]
 [ 0.00204314]
 [ 0.12021112]
 [ 0.01502858]
 [-0.03602137]
 [-0.01780007]
 [ 0.01844511]
 [ 0.06618298]
 [-0.02113916]
 [ 0.01275808]
 [ 0.03446828]
 [ 0.15679294]
 [-0.00890021]
 [ 0.05944702]
 [-0.02655203]
 [-0.02067761]
 [ 0.01572226]
 [ 0.10933303]
 [-0.00902503]
 [-0.01166315]
 [ 0.04781196]
 [ 0.00495947]
 [-0.01682064]
 [-0.12293772]
 [ 0.02138343]
 [-0.01429045]
 [ 0.04211869]
 [ 0.05275834]
 [ 0.01430992]
 [-0.00991696]
 [-0.00889892]
 [ 0.04377398]
 [-0.00688043]
 [-0.02858778]
 [ 0.04767128]
 [-0.02671643]
 [-0.00789202]
 [-0.00339556]
 [ 0.10387417]
 [-0.02223912]
 [ 0.13570228]
 [-0.02031062]
 [ 0.1406507 ]
 [-0.02682461]
 [-0.01135928]
 [-0.00253184]
 [-0.01365745]
 [-0.00362679]
 [ 0.01967674]
 [ 0.01548722]
 [-0.02026298]
 [ 0.00572665]
 [-0.06276444]
 [-0.00890985]
 [ 0.00171046]
 [-0.00055398]
 [ 0.13078281]
 [-0.01224965]
 [ 0.079733  ]
 [ 0.01486935]
 [-0.03841713]
 [ 0.03706981]
 [ 0.0671966 ]]"
[-0.7443924]
